booster[0]:
0:[loc<70.5] yes=1,no=2,missing=1
	1:[lOBlank<7] yes=3,no=4,missing=3
		3:[b<0.479999989] yes=7,no=8,missing=7
			7:leaf=0.290862948
			8:leaf=-0.0600000024
		4:[branchCount<5.5] yes=9,no=10,missing=9
			9:leaf=0.116666675
			10:leaf=0.236470595
	2:[uniq_Op<28.5] yes=5,no=6,missing=5
		5:[lOCode<2] yes=11,no=12,missing=11
			11:leaf=0.150000006
			12:leaf=-0.180000007
		6:[uniq_Opnd<56] yes=13,no=14,missing=13
			13:leaf=-0.180000007
			14:leaf=0.190909103
booster[1]:
0:[loc<70.5] yes=1,no=2,missing=1
	1:[lOBlank<7] yes=3,no=4,missing=3
		3:[b<0.479999989] yes=7,no=8,missing=7
			7:leaf=-0.290862948
			8:leaf=0.0600000024
		4:[branchCount<5.5] yes=9,no=10,missing=9
			9:leaf=-0.116666675
			10:leaf=-0.236470595
	2:[uniq_Op<28.5] yes=5,no=6,missing=5
		5:[lOCode<2] yes=11,no=12,missing=11
			11:leaf=-0.150000006
			12:leaf=0.180000007
		6:[uniq_Opnd<56] yes=13,no=14,missing=13
			13:leaf=0.180000007
			14:leaf=-0.190909103
booster[2]:
0:[lOComment<18] yes=1,no=2,missing=1
	1:[uniq_Op<18.5] yes=3,no=4,missing=3
		3:[loc<2.5] yes=7,no=8,missing=7
			7:leaf=0.030647561
			8:leaf=0.221695319
		4:[e<9140.36523] yes=9,no=10,missing=9
			9:leaf=-0.236314029
			10:leaf=0.189833373
	2:[lOComment<59] yes=5,no=6,missing=5
		5:[d<23.4700012] yes=11,no=12,missing=11
			11:leaf=0.0466699898
			12:leaf=0.187919632
		6:[total_Opnd<225] yes=13,no=14,missing=13
			13:leaf=-0.212608144
			14:leaf=0.0870283544
booster[3]:
0:[lOComment<18] yes=1,no=2,missing=1
	1:[uniq_Op<18.5] yes=3,no=4,missing=3
		3:[loc<2.5] yes=7,no=8,missing=7
			7:leaf=-0.0306475516
			8:leaf=-0.221695289
		4:[e<9140.36523] yes=9,no=10,missing=9
			9:leaf=0.236314029
			10:leaf=-0.189833358
	2:[lOComment<59] yes=5,no=6,missing=5
		5:[d<23.4700012] yes=11,no=12,missing=11
			11:leaf=-0.0466699786
			12:leaf=-0.187919632
		6:[total_Opnd<225] yes=13,no=14,missing=13
			13:leaf=0.212608129
			14:leaf=-0.0870283693
booster[4]:
0:[lOComment<18] yes=1,no=2,missing=1
	1:[uniq_Op<18.5] yes=3,no=4,missing=3
		3:[b<0.465000004] yes=7,no=8,missing=7
			7:leaf=0.187696889
			8:leaf=0.0236483924
		4:[e<9140.36523] yes=9,no=10,missing=9
			9:leaf=-0.186275691
			10:leaf=0.154814109
	2:[i<157.794998] yes=5,no=6,missing=5
		5:[d<13.7349997] yes=11,no=12,missing=11
			11:leaf=-0.0450179279
			12:leaf=0.108520918
		6:[uniq_Op<24.5] yes=13,no=14,missing=13
			13:leaf=-0.188646078
			14:leaf=0.0674678683
booster[5]:
0:[lOComment<18] yes=1,no=2,missing=1
	1:[uniq_Op<18.5] yes=3,no=4,missing=3
		3:[b<0.465000004] yes=7,no=8,missing=7
			7:leaf=-0.187696904
			8:leaf=-0.0236483943
		4:[e<9140.36523] yes=9,no=10,missing=9
			9:leaf=0.186275691
			10:leaf=-0.154814109
	2:[i<157.794998] yes=5,no=6,missing=5
		5:[d<13.7349997] yes=11,no=12,missing=11
			11:leaf=0.0450179279
			12:leaf=-0.108520932
		6:[uniq_Op<24.5] yes=13,no=14,missing=13
			13:leaf=0.188646078
			14:leaf=-0.0674678683
booster[6]:
0:[loc<27.5] yes=1,no=2,missing=1
	1:[lOBlank<7] yes=3,no=4,missing=3
		3:[b<0.399999976] yes=7,no=8,missing=7
			7:leaf=0.179657698
			8:leaf=-0.00810086261
		4:[v(g)<1.5] yes=9,no=10,missing=9
			9:leaf=-0.0967215374
			10:leaf=0.133116081
	2:[n<121.5] yes=5,no=6,missing=5
		5:[iv(g)<2.5] yes=11,no=12,missing=11
			11:leaf=0.0367301404
			12:leaf=-0.213992134
		6:[lOComment<59] yes=13,no=14,missing=13
			13:leaf=0.104006238
			14:leaf=-0.0613602512
booster[7]:
0:[loc<27.5] yes=1,no=2,missing=1
	1:[lOBlank<7] yes=3,no=4,missing=3
		3:[b<0.399999976] yes=7,no=8,missing=7
			7:leaf=-0.179657698
			8:leaf=0.00810084585
		4:[v(g)<1.5] yes=9,no=10,missing=9
			9:leaf=0.0967215374
			10:leaf=-0.133116066
	2:[n<121.5] yes=5,no=6,missing=5
		5:[iv(g)<2.5] yes=11,no=12,missing=11
			11:leaf=-0.0367301553
			12:leaf=0.213992134
		6:[lOComment<59] yes=13,no=14,missing=13
			13:leaf=-0.104006223
			14:leaf=0.0613602623
booster[8]:
0:[lOComment<18] yes=1,no=2,missing=1
	1:[uniq_Op<18.5] yes=3,no=4,missing=3
		3:[b<0.185000002] yes=7,no=8,missing=7
			7:leaf=0.158899501
			8:leaf=0.0706708804
		4:[v(g)<3.5] yes=9,no=10,missing=9
			9:leaf=-0.153377205
			10:leaf=0.120056607
	2:[lOCode<21] yes=5,no=6,missing=5
		5:[loc<70] yes=11,no=12,missing=11
			11:leaf=0.0545398034
			12:leaf=-0.0619036593
		6:leaf=0.159772456
booster[9]:
0:[lOComment<18] yes=1,no=2,missing=1
	1:[uniq_Op<18.5] yes=3,no=4,missing=3
		3:[b<0.185000002] yes=7,no=8,missing=7
			7:leaf=-0.158899516
			8:leaf=-0.0706708804
		4:[v(g)<3.5] yes=9,no=10,missing=9
			9:leaf=0.15337719
			10:leaf=-0.120056599
	2:[lOCode<21] yes=5,no=6,missing=5
		5:[loc<70] yes=11,no=12,missing=11
			11:leaf=-0.054539796
			12:leaf=0.0619036593
		6:leaf=-0.159772456
booster[10]:
0:[lOBlank<7] yes=1,no=2,missing=1
	1:[b<0.479999989] yes=3,no=4,missing=3
		3:[iv(g)<4.5] yes=7,no=8,missing=7
			7:leaf=0.158341065
			8:leaf=0.0329274684
		4:[lOBlank<5] yes=9,no=10,missing=9
			9:leaf=-0.145526379
			10:leaf=0.11722967
	2:[v(g)<1.5] yes=5,no=6,missing=5
		5:[i<23.7099991] yes=11,no=12,missing=11
			11:leaf=-0.186407208
			12:leaf=-0.00291038491
		6:[lOComment<19] yes=13,no=14,missing=13
			13:leaf=0.106349073
			14:leaf=0.0108816959
booster[11]:
0:[lOBlank<7] yes=1,no=2,missing=1
	1:[b<0.479999989] yes=3,no=4,missing=3
		3:[iv(g)<4.5] yes=7,no=8,missing=7
			7:leaf=-0.158341065
			8:leaf=-0.0329274535
		4:[lOBlank<5] yes=9,no=10,missing=9
			9:leaf=0.145526364
			10:leaf=-0.117229663
	2:[v(g)<1.5] yes=5,no=6,missing=5
		5:[i<23.7099991] yes=11,no=12,missing=11
			11:leaf=0.186407164
			12:leaf=0.00291036861
		6:[lOComment<19] yes=13,no=14,missing=13
			13:leaf=-0.106349073
			14:leaf=-0.0108817015
booster[12]:
0:[lOBlank<7] yes=1,no=2,missing=1
	1:[b<0.394999981] yes=3,no=4,missing=3
		3:[ev(g)<4.5] yes=7,no=8,missing=7
			7:leaf=0.149832845
			8:leaf=0.0252223331
		4:[lOBlank<5] yes=9,no=10,missing=9
			9:leaf=-0.126591265
			10:leaf=0.122566499
	2:[ev(g)<2] yes=5,no=6,missing=5
		5:[uniq_Opnd<61.5] yes=11,no=12,missing=11
			11:leaf=0.0282026809
			12:leaf=-0.132253036
		6:[lOComment<59] yes=13,no=14,missing=13
			13:leaf=0.107424945
			14:leaf=-0.0303101167
booster[13]:
0:[lOBlank<7] yes=1,no=2,missing=1
	1:[b<0.394999981] yes=3,no=4,missing=3
		3:[ev(g)<4.5] yes=7,no=8,missing=7
			7:leaf=-0.149832845
			8:leaf=-0.0252223182
		4:[lOBlank<5] yes=9,no=10,missing=9
			9:leaf=0.126591265
			10:leaf=-0.122566499
	2:[ev(g)<2] yes=5,no=6,missing=5
		5:[uniq_Opnd<61.5] yes=11,no=12,missing=11
			11:leaf=-0.0282026827
			12:leaf=0.132253036
		6:[lOComment<59] yes=13,no=14,missing=13
			13:leaf=-0.107424945
			14:leaf=0.0303101111
booster[14]:
0:[lOBlank<7] yes=1,no=2,missing=1
	1:[b<0.394999981] yes=3,no=4,missing=3
		3:[uniq_Op<19.5] yes=7,no=8,missing=7
			7:leaf=0.142043784
			8:leaf=0.0186039004
		4:[lOBlank<5] yes=9,no=10,missing=9
			9:leaf=-0.103025272
			10:leaf=0.110684991
	2:[lOCode<10] yes=5,no=6,missing=5
		5:[lOBlank<38] yes=11,no=12,missing=11
			11:leaf=-0.0200115237
			12:leaf=0.110607699
		6:[i<103.279999] yes=13,no=14,missing=13
			13:leaf=0.137825891
			14:leaf=-0.0350002944
booster[15]:
0:[lOBlank<7] yes=1,no=2,missing=1
	1:[b<0.394999981] yes=3,no=4,missing=3
		3:[uniq_Op<19.5] yes=7,no=8,missing=7
			7:leaf=-0.142043784
			8:leaf=-0.0186039247
		4:[lOBlank<5] yes=9,no=10,missing=9
			9:leaf=0.10302528
			10:leaf=-0.110684998
	2:[lOCode<10] yes=5,no=6,missing=5
		5:[lOBlank<38] yes=11,no=12,missing=11
			11:leaf=0.0200115256
			12:leaf=-0.110607699
		6:[i<103.279999] yes=13,no=14,missing=13
			13:leaf=-0.137825891
			14:leaf=0.035000287
booster[16]:
0:[lOBlank<27] yes=1,no=2,missing=1
	1:[i<157.794998] yes=3,no=4,missing=3
		3:[total_Opnd<112.5] yes=7,no=8,missing=7
			7:leaf=0.0662116632
			8:leaf=0.167964026
		4:leaf=-0.100473121
	2:[lOBlank<33] yes=5,no=6,missing=5
		5:[lOCode<4] yes=9,no=10,missing=9
			9:leaf=-0.0366517976
			10:leaf=-0.245175257
		6:[e<140441.391] yes=11,no=12,missing=11
			11:leaf=0.115039967
			12:leaf=-0.0469582677
booster[17]:
0:[lOBlank<27] yes=1,no=2,missing=1
	1:[i<157.794998] yes=3,no=4,missing=3
		3:[total_Opnd<112.5] yes=7,no=8,missing=7
			7:leaf=-0.0662117079
			8:leaf=-0.167964026
		4:leaf=0.100473113
	2:[lOBlank<33] yes=5,no=6,missing=5
		5:[lOCode<4] yes=9,no=10,missing=9
			9:leaf=0.036651805
			10:leaf=0.245175257
		6:[e<140441.391] yes=11,no=12,missing=11
			11:leaf=-0.115039967
			12:leaf=0.0469582751
booster[18]:
0:[lOBlank<7] yes=1,no=2,missing=1
	1:[b<0.394999981] yes=3,no=4,missing=3
		3:[lOBlank<1] yes=7,no=8,missing=7
			7:leaf=0.0432599969
			8:leaf=0.146093786
		4:[total_Op<149] yes=9,no=10,missing=9
			9:leaf=-0.117914401
			10:leaf=0.0772300363
	2:[lOCode<21] yes=5,no=6,missing=5
		5:[lOBlank<27] yes=11,no=12,missing=11
			11:leaf=0.0247912519
			12:leaf=-0.0692725405
		6:leaf=0.132643193
booster[19]:
0:[lOBlank<7] yes=1,no=2,missing=1
	1:[b<0.394999981] yes=3,no=4,missing=3
		3:[lOBlank<1] yes=7,no=8,missing=7
			7:leaf=-0.0432600267
			8:leaf=-0.146093801
		4:[total_Op<149] yes=9,no=10,missing=9
			9:leaf=0.117914408
			10:leaf=-0.0772300512
	2:[lOCode<21] yes=5,no=6,missing=5
		5:[lOBlank<27] yes=11,no=12,missing=11
			11:leaf=-0.0247912686
			12:leaf=0.0692725405
		6:leaf=-0.132643193
booster[20]:
0:[i<17.6500015] yes=1,no=2,missing=1
	1:[d<1.75] yes=3,no=4,missing=3
		3:leaf=-0.00336433714
		4:leaf=0.140929863
	2:[total_Opnd<12.5] yes=5,no=6,missing=5
		5:[v<121.815002] yes=7,no=8,missing=7
			7:leaf=-0.0315473601
			8:leaf=-0.210144401
		6:[uniq_Opnd<15.5] yes=9,no=10,missing=9
			9:leaf=0.141298562
			10:leaf=0.0073470911
booster[21]:
0:[i<17.6500015] yes=1,no=2,missing=1
	1:[d<1.75] yes=3,no=4,missing=3
		3:leaf=0.00336429547
		4:leaf=-0.140929878
	2:[total_Opnd<12.5] yes=5,no=6,missing=5
		5:[v<121.815002] yes=7,no=8,missing=7
			7:leaf=0.0315472558
			8:leaf=0.210144237
		6:[uniq_Opnd<15.5] yes=9,no=10,missing=9
			9:leaf=-0.141298577
			10:leaf=-0.00734710228
booster[22]:
0:[i<17.6500015] yes=1,no=2,missing=1
	1:[d<1.75] yes=3,no=4,missing=3
		3:leaf=-0.00285161915
		4:leaf=0.134572849
	2:[branchCount<5.5] yes=5,no=6,missing=5
		5:[n<119] yes=7,no=8,missing=7
			7:leaf=-0.0959713757
			8:leaf=0.0924701691
		6:[loc<27.5] yes=9,no=10,missing=9
			9:leaf=0.144635513
			10:leaf=0.00382152596
booster[23]:
0:[i<17.6500015] yes=1,no=2,missing=1
	1:[d<1.75] yes=3,no=4,missing=3
		3:leaf=0.00285163661
		4:leaf=-0.134572849
	2:[branchCount<5.5] yes=5,no=6,missing=5
		5:[n<119] yes=7,no=8,missing=7
			7:leaf=0.0959714353
			8:leaf=-0.0924701765
		6:[loc<27.5] yes=9,no=10,missing=9
			9:leaf=-0.144635513
			10:leaf=-0.00382152665
booster[24]:
0:[loc<18.5] yes=1,no=2,missing=1
	1:[total_Opnd<12.5] yes=3,no=4,missing=3
		3:[uniq_Opnd<7.5] yes=7,no=8,missing=7
			7:leaf=0.10472431
			8:leaf=-0.126174167
		4:[uniq_Op<17.5] yes=9,no=10,missing=9
			9:leaf=0.146134913
			10:leaf=-0.0104823969
	2:[v<657.155029] yes=5,no=6,missing=5
		5:[branchCount<6] yes=11,no=12,missing=11
			11:leaf=-0.23633182
			12:leaf=0.0148750069
		6:[loc<43.5] yes=13,no=14,missing=13
			13:leaf=0.103014998
			14:leaf=-0.00630509341
booster[25]:
0:[loc<18.5] yes=1,no=2,missing=1
	1:[total_Opnd<12.5] yes=3,no=4,missing=3
		3:[uniq_Opnd<7.5] yes=7,no=8,missing=7
			7:leaf=-0.10472434
			8:leaf=0.126174152
		4:[uniq_Op<17.5] yes=9,no=10,missing=9
			9:leaf=-0.146134928
			10:leaf=0.0104824053
	2:[v<657.155029] yes=5,no=6,missing=5
		5:[branchCount<6] yes=11,no=12,missing=11
			11:leaf=0.236331865
			12:leaf=-0.0148750124
		6:[loc<43.5] yes=13,no=14,missing=13
			13:leaf=-0.103014991
			14:leaf=0.00630509853
booster[26]:
0:[lOComment<6] yes=1,no=2,missing=1
	1:[b<0.185000002] yes=3,no=4,missing=3
		3:[uniq_Opnd<8.5] yes=7,no=8,missing=7
			7:leaf=0.0534806177
			8:leaf=0.135969356
		4:[n<120] yes=9,no=10,missing=9
			9:leaf=-0.20386146
			10:leaf=0.114692569
	2:[v(g)<11.5] yes=5,no=6,missing=5
		5:[loc<43.5] yes=11,no=12,missing=11
			11:leaf=-0.00237976317
			12:leaf=-0.122969776
		6:[i<157.794998] yes=13,no=14,missing=13
			13:leaf=0.0945182219
			14:leaf=-0.0881104991
booster[27]:
0:[lOComment<6] yes=1,no=2,missing=1
	1:[b<0.185000002] yes=3,no=4,missing=3
		3:[uniq_Opnd<8.5] yes=7,no=8,missing=7
			7:leaf=-0.0534806177
			8:leaf=-0.135969356
		4:[n<120] yes=9,no=10,missing=9
			9:leaf=0.20386149
			10:leaf=-0.114692569
	2:[v(g)<11.5] yes=5,no=6,missing=5
		5:[loc<43.5] yes=11,no=12,missing=11
			11:leaf=0.00237976131
			12:leaf=0.122969776
		6:[i<157.794998] yes=13,no=14,missing=13
			13:leaf=-0.0945182145
			14:leaf=0.0881104991
booster[28]:
0:[lOBlank<7] yes=1,no=2,missing=1
	1:[b<0.185000002] yes=3,no=4,missing=3
		3:[lOBlank<1] yes=7,no=8,missing=7
			7:leaf=0.0297229365
			8:leaf=0.130284786
		4:[lOBlank<5] yes=9,no=10,missing=9
			9:leaf=-0.0654650107
			10:leaf=0.0954355076
	2:[total_Op<107] yes=5,no=6,missing=5
		5:[v<954.224976] yes=11,no=12,missing=11
			11:leaf=-0.0197489429
			12:leaf=-0.330006093
		6:[uniq_Opnd<53] yes=13,no=14,missing=13
			13:leaf=0.14487043
			14:leaf=-0.00594570627
booster[29]:
0:[lOBlank<7] yes=1,no=2,missing=1
	1:[b<0.185000002] yes=3,no=4,missing=3
		3:[lOBlank<1] yes=7,no=8,missing=7
			7:leaf=-0.0297229942
			8:leaf=-0.130284771
		4:[lOBlank<5] yes=9,no=10,missing=9
			9:leaf=0.0654650331
			10:leaf=-0.0954355076
	2:[total_Op<107] yes=5,no=6,missing=5
		5:[v<954.224976] yes=11,no=12,missing=11
			11:leaf=0.0197489355
			12:leaf=0.330006123
		6:[uniq_Opnd<53] yes=13,no=14,missing=13
			13:leaf=-0.14487043
			14:leaf=0.00594570162
booster[30]:
0:[lOCode<21] yes=1,no=2,missing=1
	1:[uniq_Op<17.5] yes=3,no=4,missing=3
		3:[v(g)<1.5] yes=5,no=6,missing=5
			5:leaf=-0.0234919321
			6:leaf=0.0824632943
		4:[l<0.075000003] yes=7,no=8,missing=7
			7:leaf=-0.0065850853
			8:leaf=-0.170588881
	2:leaf=0.122177891
booster[31]:
0:[lOCode<21] yes=1,no=2,missing=1
	1:[uniq_Op<17.5] yes=3,no=4,missing=3
		3:[v(g)<1.5] yes=5,no=6,missing=5
			5:leaf=0.0234919582
			6:leaf=-0.0824633017
		4:[l<0.075000003] yes=7,no=8,missing=7
			7:leaf=0.0065850825
			8:leaf=0.170588881
	2:leaf=-0.122177899
booster[32]:
0:[i<17.6500015] yes=1,no=2,missing=1
	1:[l<0.449999988] yes=3,no=4,missing=3
		3:leaf=0.112987325
		4:leaf=0.01222758
	2:[i<39.6949997] yes=5,no=6,missing=5
		5:[loc<27.5] yes=7,no=8,missing=7
			7:leaf=0.00713646319
			8:leaf=-0.156482264
		6:[lOComment<59] yes=9,no=10,missing=9
			9:leaf=0.0432210453
			10:leaf=-0.0533100255
booster[33]:
0:[i<17.6500015] yes=1,no=2,missing=1
	1:[l<0.449999988] yes=3,no=4,missing=3
		3:leaf=-0.112987317
		4:leaf=-0.0122275548
	2:[i<39.6949997] yes=5,no=6,missing=5
		5:[loc<27.5] yes=7,no=8,missing=7
			7:leaf=-0.007136459
			8:leaf=0.156482264
		6:[lOComment<59] yes=9,no=10,missing=9
			9:leaf=-0.0432210453
			10:leaf=0.0533100329
booster[34]:
0:[lOCode<21] yes=1,no=2,missing=1
	1:[lOBlank<27] yes=3,no=4,missing=3
		3:[lOCode<7] yes=5,no=6,missing=5
			5:leaf=-0.00147826469
			6:leaf=0.12135879
		4:[lOCode<7] yes=7,no=8,missing=7
			7:leaf=0.036218226
			8:leaf=-0.136793956
	2:leaf=0.111012191
booster[35]:
0:[lOCode<21] yes=1,no=2,missing=1
	1:[lOBlank<27] yes=3,no=4,missing=3
		3:[lOCode<7] yes=5,no=6,missing=5
			5:leaf=0.00147827272
			6:leaf=-0.12135879
		4:[lOCode<7] yes=7,no=8,missing=7
			7:leaf=-0.0362182334
			8:leaf=0.136793956
	2:leaf=-0.111012191
booster[36]:
0:[d<23.3649998] yes=1,no=2,missing=1
	1:[d<21.4899998] yes=3,no=4,missing=3
		3:[v<657.155029] yes=7,no=8,missing=7
			7:leaf=-0.015074119
			8:leaf=0.0713178366
		4:[ev(g)<2] yes=9,no=10,missing=9
			9:leaf=-0.212308809
			10:leaf=0.0155057013
	2:[lOComment<59] yes=5,no=6,missing=5
		5:[uniq_Op<24.5] yes=11,no=12,missing=11
			11:leaf=-0.0022339588
			12:leaf=0.126812518
		6:[total_Opnd<257] yes=13,no=14,missing=13
			13:leaf=-0.110496916
			14:leaf=0.0639196485
booster[37]:
0:[d<23.3649998] yes=1,no=2,missing=1
	1:[d<21.4899998] yes=3,no=4,missing=3
		3:[v<657.155029] yes=7,no=8,missing=7
			7:leaf=0.0150741348
			8:leaf=-0.0713178515
		4:[ev(g)<2] yes=9,no=10,missing=9
			9:leaf=0.212308809
			10:leaf=-0.0155056966
	2:[lOComment<59] yes=5,no=6,missing=5
		5:[uniq_Op<24.5] yes=11,no=12,missing=11
			11:leaf=0.00223396928
			12:leaf=-0.126812518
		6:[total_Opnd<257] yes=13,no=14,missing=13
			13:leaf=0.110496931
			14:leaf=-0.063919656
booster[38]:
0:[lOComment<6] yes=1,no=2,missing=1
	1:[v(g)<1.5] yes=3,no=4,missing=3
		3:[total_Op<19.5] yes=7,no=8,missing=7
			7:leaf=0.0899980292
			8:leaf=-0.126489744
		4:[loc<31.5] yes=9,no=10,missing=9
			9:leaf=0.125956491
			10:leaf=-0.0113112293
	2:[l<0.0450000018] yes=5,no=6,missing=5
		5:[loc<56.5] yes=11,no=12,missing=11
			11:leaf=0.099203974
			12:leaf=-0.007999097
		6:[uniq_Op<24.5] yes=13,no=14,missing=13
			13:leaf=-0.0196711868
			14:leaf=-0.164024651
booster[39]:
0:[lOComment<6] yes=1,no=2,missing=1
	1:[v(g)<1.5] yes=3,no=4,missing=3
		3:[total_Op<19.5] yes=7,no=8,missing=7
			7:leaf=-0.0899979696
			8:leaf=0.126489803
		4:[loc<31.5] yes=9,no=10,missing=9
			9:leaf=-0.125956476
			10:leaf=0.0113112461
	2:[l<0.0450000018] yes=5,no=6,missing=5
		5:[loc<56.5] yes=11,no=12,missing=11
			11:leaf=-0.099203974
			12:leaf=0.00799909327
		6:[uniq_Op<24.5] yes=13,no=14,missing=13
			13:leaf=0.0196711831
			14:leaf=0.164024651
