booster[0]:
0:[nf<0.346573591] yes=1,no=2,missing=1
	1:[pd<4.69591427] yes=3,no=4,missing=3
		3:[lt<2.24990487] yes=7,no=8,missing=7
			7:leaf=0.283783793
			8:leaf=0.098413609
		4:[exp<3.83939457] yes=9,no=10,missing=9
			9:leaf=0.148351654
			10:leaf=0.273684204
	2:[pd<5.74457264] yes=5,no=6,missing=5
		5:[nf<0.895879745] yes=11,no=12,missing=11
			11:leaf=-0.00531645585
			12:leaf=-0.169973895
		6:[ndev<3.51143408] yes=13,no=14,missing=13
			13:leaf=0.17403315
			14:leaf=-0.0107142869
booster[1]:
0:[nf<0.346573591] yes=1,no=2,missing=1
	1:[pd<4.69591427] yes=3,no=4,missing=3
		3:[lt<2.24990487] yes=7,no=8,missing=7
			7:leaf=-0.283783793
			8:leaf=-0.098413609
		4:[exp<3.83939457] yes=9,no=10,missing=9
			9:leaf=-0.148351654
			10:leaf=-0.273684204
	2:[pd<5.74457264] yes=5,no=6,missing=5
		5:[nf<0.895879745] yes=11,no=12,missing=11
			11:leaf=0.00531645585
			12:leaf=0.169973895
		6:[ndev<3.51143408] yes=13,no=14,missing=13
			13:leaf=-0.17403315
			14:leaf=0.0107142869
booster[2]:
0:[nf<0.346573591] yes=1,no=2,missing=1
	1:[pd<4.40058422] yes=3,no=4,missing=3
		3:[exp<7.37180233] yes=7,no=8,missing=7
			7:leaf=0.0664792359
			8:leaf=0.255413979
		4:[exp<4.01634216] yes=9,no=10,missing=9
			9:leaf=0.0989102498
			10:leaf=0.202497259
	2:[pd<5.80662966] yes=5,no=6,missing=5
		5:[nf<1.24245334] yes=11,no=12,missing=11
			11:leaf=-0.0191175416
			12:leaf=-0.15660353
		6:[npt<0.394228667] yes=13,no=14,missing=13
			13:leaf=-0.268880635
			14:leaf=0.115364596
booster[3]:
0:[nf<0.346573591] yes=1,no=2,missing=1
	1:[pd<4.40058422] yes=3,no=4,missing=3
		3:[exp<7.37180233] yes=7,no=8,missing=7
			7:leaf=-0.0664792359
			8:leaf=-0.255413979
		4:[exp<4.01634216] yes=9,no=10,missing=9
			9:leaf=-0.0989102498
			10:leaf=-0.202497259
	2:[pd<5.80662966] yes=5,no=6,missing=5
		5:[nf<1.24245334] yes=11,no=12,missing=11
			11:leaf=0.0191175621
			12:leaf=0.15660353
		6:[npt<0.394228667] yes=13,no=14,missing=13
			13:leaf=0.268880635
			14:leaf=-0.115364589
booster[4]:
0:[nf<0.895879745] yes=1,no=2,missing=1
	1:[pd<4.41277981] yes=3,no=4,missing=3
		3:[nf<0.346573591] yes=7,no=8,missing=7
			7:leaf=0.0504076555
			8:leaf=-0.0230258219
		4:[exp<3.83939457] yes=9,no=10,missing=9
			9:leaf=0.0506656356
			10:leaf=0.164917126
	2:[pd<6.7516861] yes=5,no=6,missing=5
		5:[ndev<3.38424659] yes=11,no=12,missing=11
			11:leaf=-0.0416463837
			12:leaf=-0.157316104
		6:[nf<3.0677824] yes=13,no=14,missing=13
			13:leaf=0.170971155
			14:leaf=0.000711367698
booster[5]:
0:[nf<0.895879745] yes=1,no=2,missing=1
	1:[pd<4.41277981] yes=3,no=4,missing=3
		3:[nf<0.346573591] yes=7,no=8,missing=7
			7:leaf=-0.0504076555
			8:leaf=0.0230258312
		4:[exp<3.83939457] yes=9,no=10,missing=9
			9:leaf=-0.0506656356
			10:leaf=-0.164917141
	2:[pd<6.7516861] yes=5,no=6,missing=5
		5:[ndev<3.38424659] yes=11,no=12,missing=11
			11:leaf=0.04164638
			12:leaf=0.157316104
		6:[nf<3.0677824] yes=13,no=14,missing=13
			13:leaf=-0.170971155
			14:leaf=-0.000711380679
booster[6]:
0:[nf<0.895879745] yes=1,no=2,missing=1
	1:[pd<4.87136602] yes=3,no=4,missing=3
		3:[exp<7.30080795] yes=7,no=8,missing=7
			7:leaf=0.0257497132
			8:leaf=0.164715707
		4:[ndev<2.13833308] yes=9,no=10,missing=9
			9:leaf=0.0293006171
			10:leaf=0.157245606
	2:[pd<5.24169111] yes=5,no=6,missing=5
		5:[sexp<3.94153452] yes=11,no=12,missing=11
			11:leaf=0.0167331826
			12:leaf=-0.122119531
		6:[pd<7.43303013] yes=13,no=14,missing=13
			13:leaf=0.00287626171
			14:leaf=0.161109701
booster[7]:
0:[nf<0.895879745] yes=1,no=2,missing=1
	1:[pd<4.87136602] yes=3,no=4,missing=3
		3:[exp<7.30080795] yes=7,no=8,missing=7
			7:leaf=-0.025749689
			8:leaf=-0.164715692
		4:[ndev<2.13833308] yes=9,no=10,missing=9
			9:leaf=-0.0293006115
			10:leaf=-0.157245606
	2:[pd<5.24169111] yes=5,no=6,missing=5
		5:[sexp<3.94153452] yes=11,no=12,missing=11
			11:leaf=-0.0167331938
			12:leaf=0.122119531
		6:[pd<7.43303013] yes=13,no=14,missing=13
			13:leaf=-0.00287626218
			14:leaf=-0.161109701
booster[8]:
0:[nf<0.346573591] yes=1,no=2,missing=1
	1:[pd<2.24990487] yes=3,no=4,missing=3
		3:[lt<1.70059872] yes=7,no=8,missing=7
			7:leaf=0.19908458
			8:leaf=0.00185784558
		4:[lt<5.09680843] yes=9,no=10,missing=9
			9:leaf=-0.00212900038
			10:leaf=0.0969258547
	2:[lt<3.97898245] yes=5,no=6,missing=5
		5:[entropy<0.0816498324] yes=11,no=12,missing=11
			11:leaf=-0.025678942
			12:leaf=0.263755798
		6:[pd<4.38823795] yes=13,no=14,missing=13
			13:leaf=-0.0646847859
			14:leaf=0.0211506989
booster[9]:
0:[nf<0.346573591] yes=1,no=2,missing=1
	1:[pd<2.24990487] yes=3,no=4,missing=3
		3:[lt<1.70059872] yes=7,no=8,missing=7
			7:leaf=-0.19908458
			8:leaf=-0.00185788202
		4:[lt<5.09680843] yes=9,no=10,missing=9
			9:leaf=0.00212898338
			10:leaf=-0.096925877
	2:[lt<3.97898245] yes=5,no=6,missing=5
		5:[entropy<0.0816498324] yes=11,no=12,missing=11
			11:leaf=0.025678942
			12:leaf=-0.263755798
		6:[pd<4.38823795] yes=13,no=14,missing=13
			13:leaf=0.0646847785
			14:leaf=-0.0211507007
booster[10]:
0:[lt<6.74846649] yes=1,no=2,missing=1
	1:[exp<7.37306023] yes=3,no=4,missing=3
		3:[lt<1.50776744] yes=7,no=8,missing=7
			7:leaf=0.192954123
			8:leaf=-0.00139700237
		4:[entropy<0.655426621] yes=9,no=10,missing=9
			9:leaf=0.178725675
			10:leaf=-0.00127323973
	2:[pd<3.27696657] yes=5,no=6,missing=5
		5:[nf<0.895879745] yes=11,no=12,missing=11
			11:leaf=0.0262918007
			12:leaf=-0.145245805
		6:[nf<1.49786615] yes=13,no=14,missing=13
			13:leaf=0.166052029
			14:leaf=-0.0902144685
booster[11]:
0:[lt<6.74846649] yes=1,no=2,missing=1
	1:[exp<7.37306023] yes=3,no=4,missing=3
		3:[lt<1.50776744] yes=7,no=8,missing=7
			7:leaf=-0.192954123
			8:leaf=0.00139701413
		4:[entropy<0.655426621] yes=9,no=10,missing=9
			9:leaf=-0.178725675
			10:leaf=0.00127324369
	2:[pd<3.27696657] yes=5,no=6,missing=5
		5:[nf<0.895879745] yes=11,no=12,missing=11
			11:leaf=-0.0262917858
			12:leaf=0.145245805
		6:[nf<1.49786615] yes=13,no=14,missing=13
			13:leaf=-0.166052029
			14:leaf=0.0902144685
booster[12]:
0:[nf<1.24245334] yes=1,no=2,missing=1
	1:[pd<4.41277981] yes=3,no=4,missing=3
		3:[entropy<0.693104625] yes=7,no=8,missing=7
			7:leaf=0.00288651627
			8:leaf=0.157315403
		4:[lt<6.20758295] yes=9,no=10,missing=9
			9:leaf=0.03671268
			10:leaf=0.145262867
	2:[pd<5.24948311] yes=5,no=6,missing=5
		5:[entropy<0.686309159] yes=11,no=12,missing=11
			11:leaf=-0.123149849
			12:leaf=0.0937174559
		6:[ndev<3.27696657] yes=13,no=14,missing=13
			13:leaf=0.0736369416
			14:leaf=-0.0628779978
booster[13]:
0:[nf<1.24245334] yes=1,no=2,missing=1
	1:[pd<4.41277981] yes=3,no=4,missing=3
		3:[entropy<0.693104625] yes=7,no=8,missing=7
			7:leaf=-0.00288652419
			8:leaf=-0.157315403
		4:[lt<6.20758295] yes=9,no=10,missing=9
			9:leaf=-0.03671268
			10:leaf=-0.145262867
	2:[pd<5.24948311] yes=5,no=6,missing=5
		5:[entropy<0.686309159] yes=11,no=12,missing=11
			11:leaf=0.123149849
			12:leaf=-0.0937174559
		6:[ndev<3.27696657] yes=13,no=14,missing=13
			13:leaf=-0.0736369491
			14:leaf=0.0628779903
booster[14]:
0:[exp<7.37306023] yes=1,no=2,missing=1
	1:[nf<0.346573591] yes=3,no=4,missing=3
		3:[pd<5.43153381] yes=7,no=8,missing=7
			7:leaf=0.0131621454
			8:leaf=0.12045341
		4:[ndev<3.38424659] yes=9,no=10,missing=9
			9:leaf=-0.00097624067
			10:leaf=-0.0699365661
	2:[ndev<2.63649988] yes=5,no=6,missing=5
		5:[pd<4.50313187] yes=11,no=12,missing=11
			11:leaf=0.133983657
			12:leaf=-0.140709653
		6:[exp<7.38554096] yes=13,no=14,missing=13
			13:leaf=0.0413910188
			14:leaf=0.182632595
booster[15]:
0:[exp<7.37306023] yes=1,no=2,missing=1
	1:[nf<0.346573591] yes=3,no=4,missing=3
		3:[pd<5.43153381] yes=7,no=8,missing=7
			7:leaf=-0.0131621435
			8:leaf=-0.120453395
		4:[ndev<3.38424659] yes=9,no=10,missing=9
			9:leaf=0.000976242998
			10:leaf=0.0699365586
	2:[ndev<2.63649988] yes=5,no=6,missing=5
		5:[pd<4.50313187] yes=11,no=12,missing=11
			11:leaf=-0.133983657
			12:leaf=0.140709683
		6:[exp<7.38554096] yes=13,no=14,missing=13
			13:leaf=-0.0413910225
			14:leaf=-0.182632595
booster[16]:
0:[lt<6.53460598] yes=1,no=2,missing=1
	1:[sexp<6.83678436] yes=3,no=4,missing=3
		3:[lt<1.50776744] yes=7,no=8,missing=7
			7:leaf=0.173876494
			8:leaf=-0.0114785843
		4:[entropy<0.693079174] yes=9,no=10,missing=9
			9:leaf=0.12332546
			10:leaf=-0.136829346
	2:[pd<3.27696657] yes=5,no=6,missing=5
		5:[lt<6.57994556] yes=11,no=12,missing=11
			11:leaf=0.163761377
			12:leaf=0.00247379392
		6:[ns<0.346573591] yes=13,no=14,missing=13
			13:leaf=0.131762043
			14:leaf=-0.00343916123
booster[17]:
0:[lt<6.53460598] yes=1,no=2,missing=1
	1:[sexp<6.83678436] yes=3,no=4,missing=3
		3:[lt<1.50776744] yes=7,no=8,missing=7
			7:leaf=-0.173876524
			8:leaf=0.0114785694
		4:[entropy<0.693079174] yes=9,no=10,missing=9
			9:leaf=-0.12332546
			10:leaf=0.136829346
	2:[pd<3.27696657] yes=5,no=6,missing=5
		5:[lt<6.57994556] yes=11,no=12,missing=11
			11:leaf=-0.163761377
			12:leaf=-0.00247381604
		6:[ns<0.346573591] yes=13,no=14,missing=13
			13:leaf=-0.131762043
			14:leaf=0.00343915098
booster[18]:
0:[pd<7.43303013] yes=1,no=2,missing=1
	1:[nf<1.49786615] yes=3,no=4,missing=3
		3:[pd<5.57024956] yes=7,no=8,missing=7
			7:leaf=0.00356460921
			8:leaf=0.0919147879
		4:[entropy<0.682161212] yes=9,no=10,missing=9
			9:leaf=-0.0802162588
			10:leaf=0.27275601
	2:[nf<3.61055255] yes=5,no=6,missing=5
		5:[ns<0.895879745] yes=11,no=12,missing=11
			11:leaf=0.184957609
			12:leaf=0.064318493
		6:[pd<8.29994297] yes=13,no=14,missing=13
			13:leaf=-0.199853852
			14:leaf=0.13542901
booster[19]:
0:[pd<7.43303013] yes=1,no=2,missing=1
	1:[nf<1.49786615] yes=3,no=4,missing=3
		3:[pd<5.57024956] yes=7,no=8,missing=7
			7:leaf=-0.00356460153
			8:leaf=-0.0919148028
		4:[entropy<0.682161212] yes=9,no=10,missing=9
			9:leaf=0.0802162588
			10:leaf=-0.27275598
	2:[nf<3.61055255] yes=5,no=6,missing=5
		5:[ns<0.895879745] yes=11,no=12,missing=11
			11:leaf=-0.184957594
			12:leaf=-0.0643185005
		6:[pd<8.29994297] yes=13,no=14,missing=13
			13:leaf=0.199853867
			14:leaf=-0.13542901
booster[20]:
0:[exp<7.37306023] yes=1,no=2,missing=1
	1:[lt<1.50776744] yes=3,no=4,missing=3
		3:leaf=0.160594374
		4:[lt<6.48412609] yes=7,no=8,missing=7
			7:leaf=-0.00877192058
			8:leaf=0.0217760876
	2:[lt<5.2678051] yes=5,no=6,missing=5
		5:[pd<4.81620026] yes=9,no=10,missing=9
			9:leaf=0.112375289
			10:leaf=-0.0870817602
		6:[nf<1.49786615] yes=11,no=12,missing=11
			11:leaf=0.171785742
			12:leaf=0.054521475
booster[21]:
0:[exp<7.37306023] yes=1,no=2,missing=1
	1:[lt<1.50776744] yes=3,no=4,missing=3
		3:leaf=-0.160594374
		4:[lt<6.48412609] yes=7,no=8,missing=7
			7:leaf=0.00877192523
			8:leaf=-0.0217760839
	2:[lt<5.2678051] yes=5,no=6,missing=5
		5:[pd<4.81620026] yes=9,no=10,missing=9
			9:leaf=-0.112375289
			10:leaf=0.0870817825
		6:[nf<1.49786615] yes=11,no=12,missing=11
			11:leaf=-0.171785742
			12:leaf=-0.0545214713
booster[22]:
0:[npt<0.396615326] yes=1,no=2,missing=1
	1:[entropy<0.684445262] yes=3,no=4,missing=3
		3:[npt<0.114504337] yes=7,no=8,missing=7
			7:leaf=0.0416629985
			8:leaf=-0.162481204
		4:leaf=0.119026534
	2:[pd<5.23377514] yes=5,no=6,missing=5
		5:[nf<1.70059872] yes=9,no=10,missing=9
			9:leaf=0.00141551299
			10:leaf=-0.146422476
		6:[ndev<2.24990487] yes=11,no=12,missing=11
			11:leaf=-0.0621965192
			12:leaf=0.0684122294
booster[23]:
0:[npt<0.396615326] yes=1,no=2,missing=1
	1:[entropy<0.684445262] yes=3,no=4,missing=3
		3:[npt<0.114504337] yes=7,no=8,missing=7
			7:leaf=-0.0416629948
			8:leaf=0.162481204
		4:leaf=-0.119026534
	2:[pd<5.23377514] yes=5,no=6,missing=5
		5:[nf<1.70059872] yes=9,no=10,missing=9
			9:leaf=-0.00141551474
			10:leaf=0.146422476
		6:[ndev<2.24990487] yes=11,no=12,missing=11
			11:leaf=0.0621965118
			12:leaf=-0.068412222
booster[24]:
0:[sexp<3.74943495] yes=1,no=2,missing=1
	1:[ndev<1.70059872] yes=3,no=4,missing=3
		3:[entropy<0.388111949] yes=7,no=8,missing=7
			7:leaf=0.0484746546
			8:leaf=0.202467397
		4:[lt<4.4367342] yes=9,no=10,missing=9
			9:leaf=-0.143709183
			10:leaf=0.0200048592
	2:[sexp<4.68673992] yes=5,no=6,missing=5
		5:[ndev<2.01267576] yes=11,no=12,missing=11
			11:leaf=0.0115119815
			12:leaf=-0.068300575
		6:[pd<4.38823795] yes=13,no=14,missing=13
			13:leaf=-0.00582198054
			14:leaf=0.0454371981
booster[25]:
0:[sexp<3.74943495] yes=1,no=2,missing=1
	1:[ndev<1.70059872] yes=3,no=4,missing=3
		3:[entropy<0.388111949] yes=7,no=8,missing=7
			7:leaf=-0.0484746583
			8:leaf=-0.202467412
		4:[lt<4.4367342] yes=9,no=10,missing=9
			9:leaf=0.143709168
			10:leaf=-0.0200048611
	2:[sexp<4.68673992] yes=5,no=6,missing=5
		5:[ndev<2.01267576] yes=11,no=12,missing=11
			11:leaf=-0.0115119843
			12:leaf=0.068300575
		6:[pd<4.38823795] yes=13,no=14,missing=13
			13:leaf=0.00582198054
			14:leaf=-0.0454371981
booster[26]:
0:[nf<0.346573591] yes=1,no=2,missing=1
	1:[pd<2.24990487] yes=3,no=4,missing=3
		3:[sexp<3.48112178] yes=7,no=8,missing=7
			7:leaf=0.0328582674
			8:leaf=-0.0181757696
		4:[lt<5.09680843] yes=9,no=10,missing=9
			9:leaf=-0.0170406364
			10:leaf=0.0476241969
	2:[entropy<0.149654508] yes=5,no=6,missing=5
		5:[lt<0.958461285] yes=11,no=12,missing=11
			11:leaf=0.121022269
			12:leaf=-0.158194631
		6:[lt<3.97898245] yes=13,no=14,missing=13
			13:leaf=0.198949978
			14:leaf=-0.0185598787
booster[27]:
0:[nf<0.346573591] yes=1,no=2,missing=1
	1:[pd<2.24990487] yes=3,no=4,missing=3
		3:[sexp<3.48112178] yes=7,no=8,missing=7
			7:leaf=-0.0328582563
			8:leaf=0.0181757733
		4:[lt<5.09680843] yes=9,no=10,missing=9
			9:leaf=0.0170406327
			10:leaf=-0.0476242006
	2:[entropy<0.149654508] yes=5,no=6,missing=5
		5:[lt<0.958461285] yes=11,no=12,missing=11
			11:leaf=-0.121022269
			12:leaf=0.158194631
		6:[lt<3.97898245] yes=13,no=14,missing=13
			13:leaf=-0.198949978
			14:leaf=0.0185598787
booster[28]:
0:[pd<8.1923914] yes=1,no=2,missing=1
	1:[nf<2.80290103] yes=3,no=4,missing=3
		3:[pd<6.67897081] yes=5,no=6,missing=5
			5:leaf=0.000290470372
			6:leaf=0.0997535214
		4:[ndev<3.0677824] yes=7,no=8,missing=7
			7:leaf=-0.0160506256
			8:leaf=-0.189337552
	2:leaf=0.156593576
booster[29]:
0:[pd<8.1923914] yes=1,no=2,missing=1
	1:[nf<2.80290103] yes=3,no=4,missing=3
		3:[pd<6.67897081] yes=5,no=6,missing=5
			5:leaf=-0.000290465308
			6:leaf=-0.0997535139
		4:[ndev<3.0677824] yes=7,no=8,missing=7
			7:leaf=0.0160506275
			8:leaf=0.189337566
	2:leaf=-0.156593576
booster[30]:
0:[sexp<6.81837749] yes=1,no=2,missing=1
	1:[sexp<5.84499168] yes=3,no=4,missing=3
		3:[exp<6.22850323] yes=7,no=8,missing=7
			7:leaf=-0.000240723079
			8:leaf=0.0900599733
		4:[pd<6.36815071] yes=9,no=10,missing=9
			9:leaf=-0.0402969159
			10:leaf=0.105637312
	2:[pd<2.48142242] yes=5,no=6,missing=5
		5:[lt<7.26133919] yes=11,no=12,missing=11
			11:leaf=0.210466668
			12:leaf=-0.0379680544
		6:[ndev<3.27696657] yes=13,no=14,missing=13
			13:leaf=0.113110423
			14:leaf=-0.0141552975
booster[31]:
0:[sexp<6.81837749] yes=1,no=2,missing=1
	1:[sexp<5.84499168] yes=3,no=4,missing=3
		3:[exp<6.22850323] yes=7,no=8,missing=7
			7:leaf=0.000240723486
			8:leaf=-0.0900599808
		4:[pd<6.36815071] yes=9,no=10,missing=9
			9:leaf=0.0402969047
			10:leaf=-0.105637312
	2:[pd<2.48142242] yes=5,no=6,missing=5
		5:[lt<7.26133919] yes=11,no=12,missing=11
			11:leaf=-0.210466668
			12:leaf=0.0379680395
		6:[ndev<3.27696657] yes=13,no=14,missing=13
			13:leaf=-0.113110431
			14:leaf=0.0141552994
booster[32]:
0:[lt<6.74846649] yes=1,no=2,missing=1
	1:[lt<1.50776744] yes=3,no=4,missing=3
		3:leaf=0.146914139
		4:[entropy<0.689742565] yes=7,no=8,missing=7
			7:leaf=-0.00927637238
			8:leaf=0.0505516343
	2:[pd<3.31402063] yes=5,no=6,missing=5
		5:[ndev<2.91740537] yes=9,no=10,missing=9
			9:leaf=0.0487043224
			10:leaf=-0.0144343283
		6:[ndev<3.54085445] yes=11,no=12,missing=11
			11:leaf=0.110092364
			12:leaf=-0.028454626
booster[33]:
0:[lt<6.74846649] yes=1,no=2,missing=1
	1:[lt<1.50776744] yes=3,no=4,missing=3
		3:leaf=-0.146914139
		4:[entropy<0.689742565] yes=7,no=8,missing=7
			7:leaf=0.00927637238
			8:leaf=-0.0505516417
	2:[pd<3.31402063] yes=5,no=6,missing=5
		5:[ndev<2.91740537] yes=9,no=10,missing=9
			9:leaf=-0.0487043262
			10:leaf=0.0144343199
		6:[ndev<3.54085445] yes=11,no=12,missing=11
			11:leaf=-0.110092364
			12:leaf=0.0284546409
booster[34]:
0:[exp<7.38554096] yes=1,no=2,missing=1
	1:[ndev<3.72562075] yes=3,no=4,missing=3
		3:[pd<7.58715343] yes=7,no=8,missing=7
			7:leaf=-0.000650356757
			8:leaf=0.119974613
		4:leaf=-0.178686947
	2:[ndev<2.63649988] yes=5,no=6,missing=5
		5:[pd<4.50313187] yes=9,no=10,missing=9
			9:leaf=0.101289324
			10:leaf=-0.10620252
		6:[nf<1.49786615] yes=11,no=12,missing=11
			11:leaf=0.159984678
			12:leaf=0.0677925199
booster[35]:
0:[exp<7.38554096] yes=1,no=2,missing=1
	1:[ndev<3.72562075] yes=3,no=4,missing=3
		3:[pd<7.58715343] yes=7,no=8,missing=7
			7:leaf=0.00065035536
			8:leaf=-0.119974613
		4:leaf=0.178686947
	2:[ndev<2.63649988] yes=5,no=6,missing=5
		5:[pd<4.50313187] yes=9,no=10,missing=9
			9:leaf=-0.101289317
			10:leaf=0.106202506
		6:[nf<1.49786615] yes=11,no=12,missing=11
			11:leaf=-0.159984678
			12:leaf=-0.0677925199
booster[36]:
0:[nf<0.346573591] yes=1,no=2,missing=1
	1:[pd<5.43153381] yes=3,no=4,missing=3
		3:[lt<5.45317984] yes=7,no=8,missing=7
			7:leaf=-0.0134196375
			8:leaf=0.0134286424
		4:[lt<3.56943369] yes=9,no=10,missing=9
			9:leaf=-0.110288471
			10:leaf=0.116169073
	2:[lt<7.48309851] yes=5,no=6,missing=5
		5:[entropy<0.285979986] yes=11,no=12,missing=11
			11:leaf=-0.0952740237
			12:leaf=-0.0115981754
		6:[entropy<0.473415136] yes=13,no=14,missing=13
			13:leaf=0.0337834135
			14:leaf=0.204124004
booster[37]:
0:[nf<0.346573591] yes=1,no=2,missing=1
	1:[pd<5.43153381] yes=3,no=4,missing=3
		3:[lt<5.45317984] yes=7,no=8,missing=7
			7:leaf=0.0134196384
			8:leaf=-0.0134286387
		4:[lt<3.56943369] yes=9,no=10,missing=9
			9:leaf=0.110288464
			10:leaf=-0.11616908
	2:[lt<7.48309851] yes=5,no=6,missing=5
		5:[entropy<0.285979986] yes=11,no=12,missing=11
			11:leaf=0.0952740163
			12:leaf=0.0115981763
		6:[entropy<0.473415136] yes=13,no=14,missing=13
			13:leaf=-0.0337834172
			14:leaf=-0.204124004
booster[38]:
0:[lt<1.50776744] yes=1,no=2,missing=1
	1:leaf=0.141039804
	2:[exp<7.38554096] yes=3,no=4,missing=3
		3:[nf<2.80290103] yes=5,no=6,missing=5
			5:leaf=0.000141982702
			6:leaf=-0.0846897066
		4:[ndev<3.31402063] yes=7,no=8,missing=7
			7:leaf=0.0407900289
			8:leaf=0.158653617
booster[39]:
0:[lt<1.50776744] yes=1,no=2,missing=1
	1:leaf=-0.141039804
	2:[exp<7.38554096] yes=3,no=4,missing=3
		3:[nf<2.80290103] yes=5,no=6,missing=5
			5:leaf=-0.000141983372
			6:leaf=0.0846897066
		4:[ndev<3.31402063] yes=7,no=8,missing=7
			7:leaf=-0.0407900214
			8:leaf=-0.158653617
